<?xml version="1.0"?>
<opencv_storage>
<stage13>
  <maxWeakCount>5</maxWeakCount>
  <stageThreshold>-2.1575219631195068e+000</stageThreshold>
  <weakClassifiers>
    <_>
      <internalNodes>
        0 -1 5138 825569791 -1248329080 759435581 -551743330 -1929283585
        -1181642519 1762744783 -6297399</internalNodes>
      <leafValues>
        -7.6411545276641846e-001 6.0717844963073730e-001</leafValues></_>
    <_>
      <internalNodes>
        0 -1 5779 -766248973 -1726774893 1092721879 928501443
        -1740078968 -1475737599 -2071805549 -610563381</internalNodes>
      <leafValues>
        -7.0430397987365723e-001 6.3019764423370361e-001</leafValues></_>
    <_>
      <internalNodes>
        0 -1 4164 280303319 -149614575 223682527 -539680483 -1124030024
        -1207958255 -81740818 -70575109</internalNodes>
      <leafValues>
        -6.2609714269638062e-001 7.2907346487045288e-001</leafValues></_>
    <_>
      <internalNodes>
        0 -1 6267 -209649670 -246420313 -775597828 -14827123 -2138877475
        -2013151096 -953696247 -1182993</internalNodes>
      <leafValues>
        -7.3693490028381348e-001 6.1167550086975098e-001</leafValues></_>
    <_>
      <internalNodes>
        0 -1 5876 -678966134 -574233965 1695662111 -607598027
        -2129202816 -936861679 -902061638 -273224925</internalNodes>
      <leafValues>
        -6.9736433029174805e-001 6.4782434701919556e-001</leafValues></_></weakClassifiers></stage13>
</opencv_storage>
