<?xml version="1.0"?>
<opencv_storage>
<stage14>
  <maxWeakCount>5</maxWeakCount>
  <stageThreshold>-1.2345927953720093e+000</stageThreshold>
  <weakClassifiers>
    <_>
      <internalNodes>
        0 -1 5961 -2146713373 -584347631 -870788225 -544746881
        -893792833 -25040893 -2038379557 -1882201681</internalNodes>
      <leafValues>
        -6.9230771064758301e-001 6.4908504486083984e-001</leafValues></_>
    <_>
      <internalNodes>
        0 -1 4746 -372583960 -814235815 -912549504 -547909623
        -1083201797 -242514790 -510276337 -7632565</internalNodes>
      <leafValues>
        -9.0185624361038208e-001 4.8137968778610229e-001</leafValues></_>
    <_>
      <internalNodes>
        0 -1 3673 1972828135 1427456484 -721291946 -774618271 1353365502
        288362983 -492702997 -101738253</internalNodes>
      <leafValues>
        -7.9165685176849365e-001 5.4007834196090698e-001</leafValues></_>
    <_>
      <internalNodes>
        0 -1 7500 -578750080 -1156519928 -1676011248 -1252419455
        -1340243061 -1996324734 34335631 -1427201073</internalNodes>
      <leafValues>
        -7.1576881408691406e-001 6.0047376155853271e-001</leafValues></_>
    <_>
      <internalNodes>
        0 -1 309 -661730050 1364205891 -1807718881 2140178569 -88076657
        1544028305 -174986521 2144930743</internalNodes>
      <leafValues>
        -7.5347560644149780e-001 5.3526169061660767e-001</leafValues></_></weakClassifiers></stage14>
</opencv_storage>
